Language model created by QuickLM on Mon Jun 25 15:31:20 EDT 2018
Copyright (c) 1996-2010 Carnegie Mellon University and Alexander I. Rudnicky

The model is in standard ARPA format, designed by Doug Paul while he was at MITRE.

The code that was used to produce this language model is available in Open Source.
Please visit http://www.speech.cs.cmu.edu/tools/ for more information

The (fixed) discount mass is 0.5. The backoffs are computed using the ratio method.
This model based on a corpus of 7 sentences and 9 words

\data\
ngram 1=9
ngram 2=14
ngram 3=7

\1-grams:
-0.7782 </s> -0.3010
-0.7782 <s> -0.2218
-1.6232 LIGHTS -0.2218
-1.6232 RADIO -0.2218
-1.6232 SELFIE -0.2218
-1.6232 SLEEP -0.2218
-1.6232 START -0.2218
-1.6232 VOLUME -0.2218
-1.6232 WEATHER -0.2218

\2-grams:
-1.1461 <s> LIGHTS 0.0000
-1.1461 <s> RADIO 0.0000
-1.1461 <s> SELFIE 0.0000
-1.1461 <s> SLEEP 0.0000
-1.1461 <s> START 0.0000
-1.1461 <s> VOLUME 0.0000
-1.1461 <s> WEATHER 0.0000
-0.3010 LIGHTS </s> -0.3010
-0.3010 RADIO </s> -0.3010
-0.3010 SELFIE </s> -0.3010
-0.3010 SLEEP </s> -0.3010
-0.3010 START </s> -0.3010
-0.3010 VOLUME </s> -0.3010
-0.3010 WEATHER </s> -0.3010

\3-grams:
-0.3010 <s> LIGHTS </s>
-0.3010 <s> RADIO </s>
-0.3010 <s> SELFIE </s>
-0.3010 <s> SLEEP </s>
-0.3010 <s> START </s>
-0.3010 <s> VOLUME </s>
-0.3010 <s> WEATHER </s>

\end\
