Language model created by QuickLM on Thu Feb 15 12:53:09 EST 2018
Copyright (c) 1996-2010 Carnegie Mellon University and Alexander I. Rudnicky

The model is in standard ARPA format, designed by Doug Paul while he was at MITRE.

The code that was used to produce this language model is available in Open Source.
Please visit http://www.speech.cs.cmu.edu/tools/ for more information

The (fixed) discount mass is 0.5. The backoffs are computed using the ratio method.
This model based on a corpus of 6 sentences and 8 words

\data\
ngram 1=8
ngram 2=12
ngram 3=6

\1-grams:
-0.7782 </s> -0.3010
-0.7782 <s> -0.2218
-1.5563 CLOSE -0.2218
-1.5563 NEXT -0.2218
-1.5563 PAUSE -0.2218
-1.5563 PLAY -0.2218
-1.5563 PREVIOUS -0.2218
-1.5563 SELECT -0.2218

\2-grams:
-1.0792 <s> CLOSE 0.0000
-1.0792 <s> NEXT 0.0000
-1.0792 <s> PAUSE 0.0000
-1.0792 <s> PLAY 0.0000
-1.0792 <s> PREVIOUS 0.0000
-1.0792 <s> SELECT 0.0000
-0.3010 CLOSE </s> -0.3010
-0.3010 NEXT </s> -0.3010
-0.3010 PAUSE </s> -0.3010
-0.3010 PLAY </s> -0.3010
-0.3010 PREVIOUS </s> -0.3010
-0.3010 SELECT </s> -0.3010

\3-grams:
-0.3010 <s> CLOSE </s>
-0.3010 <s> NEXT </s>
-0.3010 <s> PAUSE </s>
-0.3010 <s> PLAY </s>
-0.3010 <s> PREVIOUS </s>
-0.3010 <s> SELECT </s>

\end\
